digraph Tree {
node [shape=box] ;
0 [label="TotalWorkingYears <= 1.5\ngini = 0.27\nsamples = 4410\nvalue = [3699, 711]"] ;
1 [label="Age <= 33.5\ngini = 0.5\nsamples = 275\nvalue = [141, 134]"] ;
0 -> 1 [labeldistance=2.5, labelangle=45, headlabel="True"] ;
2 [label="MonthlyIncome <= 112610.0\ngini = 0.495\nsamples = 239\nvalue = [108, 131]"] ;
1 -> 2 ;
3 [label="MonthlyIncome <= 23140.0\ngini = 0.473\nsamples = 203\nvalue = [78, 125]"] ;
2 -> 3 ;
4 [label="PercentSalaryHike <= 12.5\ngini = 0.245\nsamples = 21\nvalue = [18, 3]"] ;
3 -> 4 ;
5 [label="TrainingTimesLastYear <= 3.0\ngini = 0.5\nsamples = 6\nvalue = [3, 3]"] ;
4 -> 5 ;
6 [label="gini = 0.0\nsamples = 3\nvalue = [0, 3]"] ;
5 -> 6 ;
7 [label="gini = 0.0\nsamples = 3\nvalue = [3, 0]"] ;
5 -> 7 ;
8 [label="gini = 0.0\nsamples = 15\nvalue = [15, 0]"] ;
4 -> 8 ;
9 [label="Age <= 23.5\ngini = 0.442\nsamples = 182\nvalue = [60, 122]"] ;
3 -> 9 ;
10 [label="Age <= 18.5\ngini = 0.269\nsamples = 75\nvalue = [12, 63]"] ;
9 -> 10 ;
11 [label="DistanceFromHome <= 4.0\ngini = 0.49\nsamples = 21\nvalue = [9, 12]"] ;
10 -> 11 ;
12 [label="PercentSalaryHike <= 20.0\ngini = 0.32\nsamples = 15\nvalue = [3, 12]"] ;
11 -> 12 ;
13 [label="gini = 0.0\nsamples = 12\nvalue = [0, 12]"] ;
12 -> 13 ;
14 [label="gini = 0.0\nsamples = 3\nvalue = [3, 0]"] ;
12 -> 14 ;
15 [label="gini = 0.0\nsamples = 6\nvalue = [6, 0]"] ;
11 -> 15 ;
16 [label="MonthlyIncome <= 106255.0\ngini = 0.105\nsamples = 54\nvalue = [3, 51]"] ;
10 -> 16 ;
17 [label="gini = 0.0\nsamples = 51\nvalue = [0, 51]"] ;
16 -> 17 ;
18 [label="gini = 0.0\nsamples = 3\nvalue = [3, 0]"] ;
16 -> 18 ;
19 [label="MonthlyIncome <= 32530.0\ngini = 0.495\nsamples = 107\nvalue = [48, 59]"] ;
9 -> 19 ;
20 [label="PercentSalaryHike <= 23.5\ngini = 0.284\nsamples = 35\nvalue = [6, 29]"] ;
19 -> 20 ;
21 [label="TotalWorkingYears <= 0.5\ngini = 0.17\nsamples = 32\nvalue = [3, 29]"] ;
20 -> 21 ;
22 [label="gini = 0.0\nsamples = 3\nvalue = [3, 0]"] ;
21 -> 22 ;
23 [label="gini = 0.0\nsamples = 29\nvalue = [0, 29]"] ;
21 -> 23 ;
24 [label="gini = 0.0\nsamples = 3\nvalue = [3, 0]"] ;
20 -> 24 ;
25 [label="DistanceFromHome <= 11.5\ngini = 0.486\nsamples = 72\nvalue = [42, 30]"] ;
19 -> 25 ;
26 [label="MonthlyIncome <= 63965.0\ngini = 0.415\nsamples = 51\nvalue = [36, 15]"] ;
25 -> 26 ;
27 [label="gini = 0.0\nsamples = 30\nvalue = [30, 0]"] ;
26 -> 27 ;
28 [label="gini = 0.408\nsamples = 21\nvalue = [6, 15]"] ;
26 -> 28 ;
29 [label="MonthlyIncome <= 64960.0\ngini = 0.408\nsamples = 21\nvalue = [6, 15]"] ;
25 -> 29 ;
30 [label="gini = 0.0\nsamples = 15\nvalue = [0, 15]"] ;
29 -> 30 ;
31 [label="gini = 0.0\nsamples = 6\nvalue = [6, 0]"] ;
29 -> 31 ;
32 [label="DistanceFromHome <= 5.0\ngini = 0.278\nsamples = 36\nvalue = [30, 6]"] ;
2 -> 32 ;
33 [label="gini = 0.0\nsamples = 21\nvalue = [21, 0]"] ;
32 -> 33 ;
34 [label="MonthlyIncome <= 161855.0\ngini = 0.48\nsamples = 15\nvalue = [9, 6]"] ;
32 -> 34 ;
35 [label="gini = 0.0\nsamples = 6\nvalue = [0, 6]"] ;
34 -> 35 ;
36 [label="gini = 0.0\nsamples = 9\nvalue = [9, 0]"] ;
34 -> 36 ;
37 [label="MonthlyIncome <= 25425.0\ngini = 0.153\nsamples = 36\nvalue = [33, 3]"] ;
1 -> 37 ;
38 [label="Age <= 34.5\ngini = 0.5\nsamples = 6\nvalue = [3, 3]"] ;
37 -> 38 ;
39 [label="gini = 0.0\nsamples = 3\nvalue = [3, 0]"] ;
38 -> 39 ;
40 [label="gini = 0.0\nsamples = 3\nvalue = [0, 3]"] ;
38 -> 40 ;
41 [label="gini = 0.0\nsamples = 30\nvalue = [30, 0]"] ;
37 -> 41 ;
42 [label="Age <= 33.5\ngini = 0.24\nsamples = 4135\nvalue = [3558, 577]"] ;
0 -> 42 [labeldistance=2.5, labelangle=-45, headlabel="False"] ;
43 [label="YearsAtCompany <= 2.5\ngini = 0.316\nsamples = 1483\nvalue = [1191, 292]"] ;
42 -> 43 ;
44 [label="Age <= 27.5\ngini = 0.458\nsamples = 265\nvalue = [171, 94]"] ;
43 -> 44 ;
45 [label="TrainingTimesLastYear <= 5.5\ngini = 0.349\nsamples = 120\nvalue = [93, 27]"] ;
44 -> 45 ;
46 [label="TotalWorkingYears <= 3.5\ngini = 0.326\nsamples = 117\nvalue = [93, 24]"] ;
45 -> 46 ;
47 [label="Age <= 21.5\ngini = 0.18\nsamples = 60\nvalue = [54, 6]"] ;
46 -> 47 ;
48 [label="DistanceFromHome <= 19.0\ngini = 0.346\nsamples = 27\nvalue = [21, 6]"] ;
47 -> 48 ;
49 [label="gini = 0.219\nsamples = 24\nvalue = [21, 3]"] ;
48 -> 49 ;
50 [label="gini = 0.0\nsamples = 3\nvalue = [0, 3]"] ;
48 -> 50 ;
51 [label="gini = 0.0\nsamples = 33\nvalue = [33, 0]"] ;
47 -> 51 ;
52 [label="Age <= 24.5\ngini = 0.432\nsamples = 57\nvalue = [39, 18]"] ;
46 -> 52 ;
53 [label="Age <= 23.5\ngini = 0.444\nsamples = 18\nvalue = [6, 12]"] ;
52 -> 53 ;
54 [label="gini = 0.444\nsamples = 9\nvalue = [6, 3]"] ;
53 -> 54 ;
55 [label="gini = 0.0\nsamples = 9\nvalue = [0, 9]"] ;
53 -> 55 ;
56 [label="MonthlyIncome <= 26765.0\ngini = 0.26\nsamples = 39\nvalue = [33, 6]"] ;
52 -> 56 ;
57 [label="gini = 0.0\nsamples = 3\nvalue = [0, 3]"] ;
56 -> 57 ;
58 [label="gini = 0.153\nsamples = 36\nvalue = [33, 3]"] ;
56 -> 58 ;
59 [label="gini = 0.0\nsamples = 3\nvalue = [0, 3]"] ;
45 -> 59 ;
60 [label="YearsWithCurrManager <= 1.5\ngini = 0.497\nsamples = 145\nvalue = [78, 67]"] ;
44 -> 60 ;
61 [label="PercentSalaryHike <= 20.5\ngini = 0.469\nsamples = 64\nvalue = [24, 40]"] ;
60 -> 61 ;
62 [label="Age <= 31.5\ngini = 0.428\nsamples = 58\nvalue = [18, 40]"] ;
61 -> 62 ;
63 [label="DistanceFromHome <= 22.5\ngini = 0.255\nsamples = 40\nvalue = [6, 34]"] ;
62 -> 63 ;
64 [label="gini = 0.149\nsamples = 37\nvalue = [3, 34]"] ;
63 -> 64 ;
65 [label="gini = 0.0\nsamples = 3\nvalue = [3, 0]"] ;
63 -> 65 ;
66 [label="PercentSalaryHike <= 13.5\ngini = 0.444\nsamples = 18\nvalue = [12, 6]"] ;
62 -> 66 ;
67 [label="gini = 0.444\nsamples = 9\nvalue = [3, 6]"] ;
66 -> 67 ;
68 [label="gini = 0.0\nsamples = 9\nvalue = [9, 0]"] ;
66 -> 68 ;
69 [label="gini = 0.0\nsamples = 6\nvalue = [6, 0]"] ;
61 -> 69 ;
70 [label="PercentSalaryHike <= 21.5\ngini = 0.444\nsamples = 81\nvalue = [54, 27]"] ;
60 -> 70 ;
71 [label="MonthlyIncome <= 185010.0\ngini = 0.363\nsamples = 63\nvalue = [48, 15]"] ;
70 -> 71 ;
72 [label="MonthlyIncome <= 53420.0\ngini = 0.32\nsamples = 60\nvalue = [48, 12]"] ;
71 -> 72 ;
73 [label="gini = 0.426\nsamples = 39\nvalue = [27, 12]"] ;
72 -> 73 ;
74 [label="gini = 0.0\nsamples = 21\nvalue = [21, 0]"] ;
72 -> 74 ;
75 [label="gini = 0.0\nsamples = 3\nvalue = [0, 3]"] ;
71 -> 75 ;
76 [label="DistanceFromHome <= 4.0\ngini = 0.444\nsamples = 18\nvalue = [6, 12]"] ;
70 -> 76 ;
77 [label="gini = 0.0\nsamples = 6\nvalue = [6, 0]"] ;
76 -> 77 ;
78 [label="gini = 0.0\nsamples = 12\nvalue = [0, 12]"] ;
76 -> 78 ;
79 [label="DistanceFromHome <= 26.5\ngini = 0.272\nsamples = 1218\nvalue = [1020, 198]"] ;
43 -> 79 ;
80 [label="MonthlyIncome <= 48155.0\ngini = 0.258\nsamples = 1161\nvalue = [984, 177]"] ;
79 -> 80 ;
81 [label="PercentSalaryHike <= 18.5\ngini = 0.195\nsamples = 549\nvalue = [489, 60]"] ;
80 -> 81 ;
82 [label="TotalWorkingYears <= 9.5\ngini = 0.142\nsamples = 429\nvalue = [396, 33]"] ;
81 -> 82 ;
83 [label="YearsWithCurrManager <= 1.5\ngini = 0.077\nsamples = 300\nvalue = [288, 12]"] ;
82 -> 83 ;
84 [label="gini = 0.298\nsamples = 33\nvalue = [27, 6]"] ;
83 -> 84 ;
85 [label="gini = 0.044\nsamples = 267\nvalue = [261, 6]"] ;
83 -> 85 ;
86 [label="Age <= 28.5\ngini = 0.273\nsamples = 129\nvalue = [108, 21]"] ;
82 -> 86 ;
87 [label="gini = 0.0\nsamples = 3\nvalue = [0, 3]"] ;
86 -> 87 ;
88 [label="gini = 0.245\nsamples = 126\nvalue = [108, 18]"] ;
86 -> 88 ;
89 [label="MonthlyIncome <= 20340.0\ngini = 0.349\nsamples = 120\nvalue = [93, 27]"] ;
81 -> 89 ;
90 [label="gini = 0.0\nsamples = 6\nvalue = [0, 6]"] ;
89 -> 90 ;
91 [label="TotalWorkingYears <= 6.5\ngini = 0.301\nsamples = 114\nvalue = [93, 21]"] ;
89 -> 91 ;
92 [label="gini = 0.469\nsamples = 48\nvalue = [30, 18]"] ;
91 -> 92 ;
93 [label="gini = 0.087\nsamples = 66\nvalue = [63, 3]"] ;
91 -> 93 ;
94 [label="YearsAtCompany <= 3.5\ngini = 0.309\nsamples = 612\nvalue = [495, 117]"] ;
80 -> 94 ;
95 [label="DistanceFromHome <= 7.5\ngini = 0.469\nsamples = 96\nvalue = [60, 36]"] ;
94 -> 95 ;
96 [label="MonthlyIncome <= 48355.0\ngini = 0.346\nsamples = 54\nvalue = [42, 12]"] ;
95 -> 96 ;
97 [label="gini = 0.0\nsamples = 3\nvalue = [0, 3]"] ;
96 -> 97 ;
98 [label="gini = 0.291\nsamples = 51\nvalue = [42, 9]"] ;
96 -> 98 ;
99 [label="MonthlyIncome <= 115880.0\ngini = 0.49\nsamples = 42\nvalue = [18, 24]"] ;
95 -> 99 ;
100 [label="gini = 0.469\nsamples = 24\nvalue = [15, 9]"] ;
99 -> 100 ;
101 [label="gini = 0.278\nsamples = 18\nvalue = [3, 15]"] ;
99 -> 101 ;
102 [label="MonthlyIncome <= 49880.0\ngini = 0.265\nsamples = 516\nvalue = [435, 81]"] ;
94 -> 102 ;
103 [label="PercentSalaryHike <= 17.0\ngini = 0.5\nsamples = 24\nvalue = [12, 12]"] ;
102 -> 103 ;
104 [label="gini = 0.32\nsamples = 15\nvalue = [3, 12]"] ;
103 -> 104 ;
105 [label="gini = 0.0\nsamples = 9\nvalue = [9, 0]"] ;
103 -> 105 ;
106 [label="TotalWorkingYears <= 5.5\ngini = 0.241\nsamples = 492\nvalue = [423, 69]"] ;
102 -> 106 ;
107 [label="gini = 0.0\nsamples = 81\nvalue = [81, 0]"] ;
106 -> 107 ;
108 [label="gini = 0.279\nsamples = 411\nvalue = [342, 69]"] ;
106 -> 108 ;
109 [label="TrainingTimesLastYear <= 1.5\ngini = 0.465\nsamples = 57\nvalue = [36, 21]"] ;
79 -> 109 ;
110 [label="gini = 0.0\nsamples = 12\nvalue = [0, 12]"] ;
109 -> 110 ;
111 [label="MonthlyIncome <= 30330.0\ngini = 0.32\nsamples = 45\nvalue = [36, 9]"] ;
109 -> 111 ;
112 [label="YearsAtCompany <= 8.0\ngini = 0.5\nsamples = 18\nvalue = [9, 9]"] ;
111 -> 112 ;
113 [label="gini = 0.0\nsamples = 9\nvalue = [0, 9]"] ;
112 -> 113 ;
114 [label="gini = 0.0\nsamples = 9\nvalue = [9, 0]"] ;
112 -> 114 ;
115 [label="gini = 0.0\nsamples = 27\nvalue = [27, 0]"] ;
111 -> 115 ;
116 [label="TotalWorkingYears <= 39.0\ngini = 0.192\nsamples = 2652\nvalue = [2367, 285]"] ;
42 -> 116 ;
117 [label="YearsWithCurrManager <= 0.5\ngini = 0.189\nsamples = 2646\nvalue = [2367, 279]"] ;
116 -> 117 ;
118 [label="TotalWorkingYears <= 3.5\ngini = 0.316\nsamples = 411\nvalue = [330, 81]"] ;
117 -> 118 ;
119 [label="MonthlyIncome <= 88375.0\ngini = 0.48\nsamples = 15\nvalue = [6, 9]"] ;
118 -> 119 ;
120 [label="Age <= 49.0\ngini = 0.444\nsamples = 9\nvalue = [6, 3]"] ;
119 -> 120 ;
121 [label="gini = 0.0\nsamples = 6\nvalue = [6, 0]"] ;
120 -> 121 ;
122 [label="gini = 0.0\nsamples = 3\nvalue = [0, 3]"] ;
120 -> 122 ;
123 [label="gini = 0.0\nsamples = 6\nvalue = [0, 6]"] ;
119 -> 123 ;
124 [label="MonthlyIncome <= 34145.0\ngini = 0.298\nsamples = 396\nvalue = [324, 72]"] ;
118 -> 124 ;
125 [label="YearsAtCompany <= 11.5\ngini = 0.13\nsamples = 129\nvalue = [120, 9]"] ;
124 -> 125 ;
126 [label="Age <= 55.0\ngini = 0.091\nsamples = 126\nvalue = [120, 6]"] ;
125 -> 126 ;
127 [label="gini = 0.05\nsamples = 117\nvalue = [114, 3]"] ;
126 -> 127 ;
128 [label="gini = 0.444\nsamples = 9\nvalue = [6, 3]"] ;
126 -> 128 ;
129 [label="gini = 0.0\nsamples = 3\nvalue = [0, 3]"] ;
125 -> 129 ;
130 [label="MonthlyIncome <= 37540.0\ngini = 0.361\nsamples = 267\nvalue = [204, 63]"] ;
124 -> 130 ;
131 [label="TrainingTimesLastYear <= 2.5\ngini = 0.48\nsamples = 15\nvalue = [6, 9]"] ;
130 -> 131 ;
132 [label="gini = 0.0\nsamples = 6\nvalue = [6, 0]"] ;
131 -> 132 ;
133 [label="gini = 0.0\nsamples = 9\nvalue = [0, 9]"] ;
131 -> 133 ;
134 [label="TrainingTimesLastYear <= 1.5\ngini = 0.337\nsamples = 252\nvalue = [198, 54]"] ;
130 -> 134 ;
135 [label="gini = 0.49\nsamples = 21\nvalue = [9, 12]"] ;
134 -> 135 ;
136 [label="gini = 0.298\nsamples = 231\nvalue = [189, 42]"] ;
134 -> 136 ;
137 [label="MonthlyIncome <= 10300.0\ngini = 0.161\nsamples = 2235\nvalue = [2037, 198]"] ;
117 -> 137 ;
138 [label="gini = 0.0\nsamples = 3\nvalue = [0, 3]"] ;
137 -> 138 ;
139 [label="DistanceFromHome <= 24.5\ngini = 0.159\nsamples = 2232\nvalue = [2037, 195]"] ;
137 -> 139 ;
140 [label="DistanceFromHome <= 3.5\ngini = 0.172\nsamples = 2046\nvalue = [1851, 195]"] ;
139 -> 140 ;
141 [label="YearsAtCompany <= 1.5\ngini = 0.101\nsamples = 729\nvalue = [690, 39]"] ;
140 -> 141 ;
142 [label="gini = 0.5\nsamples = 6\nvalue = [3, 3]"] ;
141 -> 142 ;
143 [label="gini = 0.095\nsamples = 723\nvalue = [687, 36]"] ;
141 -> 143 ;
144 [label="MonthlyIncome <= 63480.0\ngini = 0.209\nsamples = 1317\nvalue = [1161, 156]"] ;
140 -> 144 ;
145 [label="gini = 0.256\nsamples = 855\nvalue = [726, 129]"] ;
144 -> 145 ;
146 [label="gini = 0.11\nsamples = 462\nvalue = [435, 27]"] ;
144 -> 146 ;
147 [label="gini = 0.0\nsamples = 186\nvalue = [186, 0]"] ;
139 -> 147 ;
148 [label="gini = 0.0\nsamples = 6\nvalue = [0, 6]"] ;
116 -> 148 ;
}